<?xml version="1.0"?>
<opencv_storage>
<cascade>
  <stageType>BOOST</stageType>
  <featureType>HAAR</featureType>
  <height>20</height>
  <width>20</width>
  <stageParams>
    <boostType>GAB</boostType>
    <minHitRate>9.9900001287460327e-01</minHitRate>
    <maxFalseAlarm>3.0000001192092896e-01</maxFalseAlarm>
    <weightTrimRate>9.4999999999999996e-01</weightTrimRate>
    <maxDepth>1</maxDepth>
    <maxWeakCount>100</maxWeakCount></stageParams>
  <featureParams>
    <maxCatCount>0</maxCatCount>
    <featSize>1</featSize>
    <mode>BASIC</mode></featureParams>
  <stageNum>3</stageNum>
  <stages>
    <!-- stage 0 -->
    <_>
      <maxWeakCount>2</maxWeakCount>
      <stageThreshold>-1.0399372549727559e-03</stageThreshold>
      <weakClassifiers>
        <_>
          <internalNodes>
            0 -1 0 1.6098767518997192e-01</internalNodes>
          <leafValues>
            -9.8926174640655518e-01 9.8803985118865967e-01</leafValues></_>
        <_>
          <internalNodes>
            0 -1 3 3.3270168304443359e-01</internalNodes>
          <leafValues>
            -9.8133248090744019e-01 9.8822182416915894e-01</leafValues></_></weakClassifiers></_>
    <!-- stage 1 -->
    <_>
      <maxWeakCount>2</maxWeakCount>
      <stageThreshold>-3.1199514865875244e-02</stageThreshold>
      <weakClassifiers>
        <_>
          <internalNodes>
            0 -1 4 -7.5317047536373138e-02</internalNodes>
          <leafValues>
            9.8278146982192993e-01 -9.9189192056655884e-01</leafValues></_>
        <_>
          <internalNodes>
            0 -1 5 -5.3921513259410858e-02</internalNodes>
          <leafValues>
            9.6069240570068359e-01 -9.8497742414474487e-01</leafValues></_></weakClassifiers></_>
    <!-- stage 2 -->
    <_>
      <maxWeakCount>2</maxWeakCount>
      <stageThreshold>-6.4362429082393646e-02</stageThreshold>
      <weakClassifiers>
        <_>
          <internalNodes>
            0 -1 2 7.6125547289848328e-02</internalNodes>
          <leafValues>
            -9.8622590303421021e-01 9.6194225549697876e-01</leafValues></_>
        <_>
          <internalNodes>
            0 -1 1 5.4186508059501648e-02</internalNodes>
          <leafValues>
            -9.8699450492858887e-01 9.2186343669891357e-01</leafValues></_></weakClassifiers></_></stages>
  <features>
    <_>
      <rects>
        <_>
          0 6 8 11 -1.</_>
        <_>
          4 6 4 11 2.</_></rects>
      <tilted>0</tilted></_>
    <_>
      <rects>
        <_>
          2 6 4 12 -1.</_>
        <_>
          2 10 4 4 3.</_></rects>
      <tilted>0</tilted></_>
    <_>
      <rects>
        <_>
          3 4 15 3 -1.</_>
        <_>
          8 4 5 3 3.</_></rects>
      <tilted>0</tilted></_>
    <_>
      <rects>
        <_>
          4 0 13 12 -1.</_>
        <_>
          4 6 13 6 2.</_></rects>
      <tilted>0</tilted></_>
    <_>
      <rects>
        <_>
          8 14 8 6 -1.</_>
        <_>
          8 17 8 3 2.</_></rects>
      <tilted>0</tilted></_>
    <_>
      <rects>
        <_>
          14 9 6 5 -1.</_>
        <_>
          17 9 3 5 2.</_></rects>
      <tilted>0</tilted></_></features></cascade>
</opencv_storage>
